,0,1,2,3,4,5,6,7,8,9,10,11,12,13,14,15,16,17,18,19,20,21,22,23,24,25,26,27,28,29,30,31,32,33,34,35,36,37,38,39,40,41,42,43,44,45,46,47,48,49,50,51,52,53,54,55,56,57,58,59,60,61,62,63,64,65,66,67
0.005,-0.01577005243405765,-0.011063847828636848,0.04020241326982065,-0.042216222786981755,-0.01930681841845239,-0.004573077904627479,0.0033027975671975265,-0.016054299300288354,-0.019843191525463863,0.01090477810619948,-0.04089887890952235,-0.020011843350702274,0.0087592906536498,-0.021651576751272075,-0.0015307037932991117,-0.016910221345371568,-0.002097834820149365,-0.025947663301697968,0.020938785580159523,-0.015658322514163235,0.008650027728837502,0.0028950237936782404,-0.013181150919299528,-0.008781905454390608,-0.0002701565907559725,-0.010151798403618899,0.05471255252794307,-0.009343386654052648,0.0017499373475510826,-0.0008310945405773738,0.032734227546204406,-0.0185886744940111,0.017943615305850154,-0.015240357046130113,0.0668918910411887,0.009614394098542,-0.04009582293093911,0.01597406294693686,0.033965856801909076,-0.012770135550916576,0.029545691685306116,0.07415194745129475,0.0022990444084075683,0.014977452486579834,-0.0052477448080670425,0.018681380597247357,-0.06297852208982625,-0.06503571642313544,-0.0634335660644846,0.02457274552448887,-0.00010529116155728879,0.00023743601678766386,0.02250933125717552,0.007467888485178008,-0.009781270178127546,-0.021442288790872528,0.047545226448953364,0.013992244844160142,0.06031444982340099,0.04197928303389532,0.015033746232062644,-0.027130776784227942,0.006203931967516312,0.019643084878778937,-0.019559504973216117,-0.00620879228718171,0.003397224501590643,-0.0005993951853227022
0.01,-0.03942513108514412,-0.027659619571592096,0.10050603317455162,-0.10554055696745433,-0.04826704604613091,-0.011432694761568718,0.00825699391799381,-0.04013574825072093,-0.04960797881365969,0.027261945265498688,-0.10224719727380593,-0.05002960837675571,0.021898226634124506,-0.05412894187818017,-0.0038267594832477932,-0.04227555336342892,-0.005244587050373423,-0.06486915825424497,0.05234696395039884,-0.03914580628540811,0.021625069322093765,0.007237559484195617,-0.03295287729824883,-0.021954763635976496,-0.0006753914768899416,-0.025379496009047264,0.1367813813198577,-0.023358466635131594,0.004374843368877709,-0.002077736351443437,0.08183556886551104,-0.046471686235027766,0.044859038264625374,-0.038100892615325274,0.16722972760297178,0.024035985246354998,-0.10023955732734781,0.039935157367342135,0.0849146420047727,-0.031925338877291445,0.0738642292132653,0.1853798686282369,0.005747611021018881,0.0374436312164496,-0.013119362020167655,0.04670345149311837,-0.15744630522456557,-0.1625892910578386,-0.1585839151612114,0.061431863811222134,-0.0002632279038932289,0.000593590041969138,0.05627332814293881,0.01866972121294501,-0.024453175445318887,-0.05360572197718133,0.11886306612238348,0.034980612110400364,0.1507861245585025,0.10494820758473832,0.03758436558015661,-0.06782694196056985,0.015509829918790767,0.04910771219694733,-0.04889876243304031,-0.015521980717954298,0.008493061253976593,-0.0014984879633067546
0.015,-0.0630802097362306,-0.04425539131454739,0.1608096530792826,-0.16886489114792702,-0.07722727367380956,-0.018292311618509915,0.013211190268790106,-0.06421719720115342,-0.07937276610185545,0.04361911242479792,-0.1635955156380894,-0.0800473734028091,0.0350371626145992,-0.0866063070050883,-0.006122815173196447,-0.06764088538148627,-0.00839133928059746,-0.10379065320679187,0.08375514232063809,-0.06263329005665294,0.03460011091535001,0.011580095174712961,-0.05272460367719811,-0.03512762181756243,-0.00108062636302389,-0.040607193614475595,0.21885021011177228,-0.03737354661621059,0.00699974939020433,-0.003324378162309495,0.13093691018481762,-0.0743546979760444,0.07177446122340062,-0.06096142818452045,0.2675675641647548,0.038457576394168,-0.16038329172375643,0.06389625178774744,0.1358634272076363,-0.051080542203666306,0.11818276674122447,0.296607789805179,0.009196177633630273,0.05990980994631934,-0.02099097923226817,0.07472552238898943,-0.251914088359305,-0.26014286569254175,-0.2537342642579384,0.09829098209795548,-0.00042116464622915517,0.0009497440671506555,0.09003732502870208,0.02987155394071203,-0.03912508071251018,-0.08576915516349011,0.19018090579581345,0.05596897937664057,0.24125779929360397,0.1679171321355813,0.060134984928250576,-0.10852310713691177,0.024815727870065248,0.07857233951511575,-0.07823801989286447,-0.02483516914872684,0.013588898006362572,-0.002397580741290809
0.02,-0.08673528838731707,-0.060851163057502614,0.22111327298401368,-0.2321892253283996,-0.10618750130148794,-0.025151928475451196,0.01816538661958636,-0.0882986461515861,-0.10913755339005132,0.05997627958409714,-0.22494383400237306,-0.11006513842886256,0.048176098595074,-0.11908367213199642,-0.008418870863145085,-0.09300621739954362,-0.011538091510821552,-0.14271214815933903,0.11516332069087747,-0.08612077382789782,0.04757515250860628,0.015922630865230318,-0.07249633005614745,-0.048300479999148355,-0.0014858612491579215,-0.05583489121990397,0.3009190389036869,-0.05138862659728956,0.009624655411530972,-0.0045710199731755705,0.18003825150412428,-0.10223770971706107,0.09868988418217589,-0.08382196375371563,0.3679054007265378,0.05287916754198098,-0.22052702612016511,0.08785734620815275,0.1868122124104999,-0.07023574553004117,0.1625013042691837,0.40783571098212124,0.0126447442462417,0.08237598867618909,-0.02886259644436895,0.10274759328486056,-0.3463818714940442,-0.35769644032724485,-0.34888461335466536,0.13515010038468872,-0.0005791013885651508,0.0013058980923320931,0.12380132191446544,0.04107338666847904,-0.053796985979701575,-0.11793258834979892,0.26149874546924345,0.0769573466428808,0.33172947402870545,0.23088605668642437,0.08268560427634455,-0.14921927231325374,0.034121625821339714,0.10803696683328415,-0.10757727735268872,-0.03414835757949938,0.018684734758748538,-0.003296673519274862
0.025,-0.11039036703840355,-0.07744693480045794,0.2814168928887445,-0.2955135595088726,-0.13514772892916654,-0.032011545332392394,0.023119582970382635,-0.11238009510201856,-0.13890234067824714,0.07633344674339637,-0.2862921523666566,-0.14008290345491603,0.061315034575548676,-0.15156103725890457,-0.010714926553093779,-0.11837154941760102,-0.014684843741045644,-0.1816336431118859,0.1465714990611167,-0.10960825759914267,0.060550194101862465,0.020265166555747678,-0.09226805643509667,-0.061473338180734305,-0.0018910961352918698,-0.07106258882533231,0.38298786769560156,-0.06540370657836844,0.012249561432857575,-0.005817661784041667,0.22913959282343085,-0.1301207214580777,0.12560530714095103,-0.10668249932291082,0.46824323728832096,0.067300758689794,-0.28067076051657386,0.111818440628558,0.23776099761336347,-0.08939094885641602,0.2068198417971429,0.5190636321590636,0.016093310858852954,0.10484216740605888,-0.03673421365646934,0.1307696641807316,-0.4408496546287838,-0.4552500149619481,-0.4440349624513923,0.17200921867142205,-0.0007370381309011464,0.0016620521175135794,0.15756531880022873,0.052275219396246034,-0.06846889124689298,-0.15009602153610774,0.3328165851426736,0.09794571390912107,0.422201148763807,0.29385498123726733,0.10523622362443846,-0.18991543748959566,0.04342752377261422,0.13750159415145258,-0.13691653481251287,-0.04346154601027197,0.02378057151113451,-0.004195766297258921
0.030000000000000002,-0.13404544568949006,-0.09404270654341321,0.3417205127934756,-0.3588378936893453,-0.164107956556845,-0.03887116218933362,0.028073779321178965,-0.13646154405245103,-0.1686671279664429,0.09269061390269562,-0.34764047073094023,-0.1701006684809695,0.07445397055602335,-0.18403840238581262,-0.013010982243042375,-0.14373688143565824,-0.017831595971269654,-0.22055513806443286,0.17797967743135606,-0.13309574137038754,0.0735252356951187,0.024607702246265073,-0.11203978281404599,-0.07464619636232012,-0.002296331021425846,-0.08629028643076067,0.465056696487516,-0.07941878655944745,0.01487446745418429,-0.007064303594907714,0.27824093414273754,-0.15800373319909444,0.15252073009972633,-0.129543034892106,0.5685810738501043,0.08172234983760704,-0.3408144949129825,0.1357795350489633,0.2887097828162273,-0.10854615218279093,0.25113837932510197,0.6302915533360055,0.01954187747146438,0.1273083461359285,-0.04460583086856992,0.15879173507660266,-0.535317437763523,-0.5528035895966512,-0.5391853115481192,0.20886833695815535,-0.0008949748732369756,0.0020182061426951003,0.19132931568599193,0.06347705212401306,-0.08314079651408415,-0.18225945472241656,0.4041344248161037,0.1189340811753613,0.5126728234989084,0.35682390578811035,0.12778684297253248,-0.23061160266593758,0.05273342172388869,0.1669662214696209,-0.16625579227233708,-0.052774734441044496,0.028876408263520517,-0.005094859075242966
0.034999999999999996,-0.1577005243405765,-0.11063847828636839,0.40202413269820647,-0.42216222786981733,-0.19306818418452365,-0.04573077904627487,0.03302797567197524,-0.16054299300288372,-0.19843191525463877,0.10904778106199475,-0.40898878909522374,-0.20011843350702285,0.08759290653649802,-0.21651576751272067,-0.015307037932991173,-0.16910221345371568,-0.02097834820149369,-0.2594766330169799,0.20938785580159536,-0.15658322514163245,0.08650027728837506,0.028950237936782468,-0.1318115091929953,-0.08781905454390598,-0.0027015659075597664,-0.10151798403618906,0.5471255252794308,-0.09343386654052638,0.017499373475510838,-0.008310945405773748,0.32734227546204414,-0.18588674494011106,0.1794361530585015,-0.1524035704613011,0.6689189104118871,0.09614394098541999,-0.40095822930939123,0.15974062946936854,0.3396585680190908,-0.12770135550916578,0.2954569168530612,0.7415194745129476,0.022990444084075523,0.1497745248657984,-0.05247744808067062,0.1868138059724735,-0.6297852208982623,-0.6503571642313544,-0.6343356606448456,0.24572745524488854,-0.0010529116155729157,0.002374360167876552,0.22509331257175524,0.07467888485178004,-0.09781270178127555,-0.21442288790872532,0.4754522644895339,0.13992244844160145,0.60314449823401,0.41979283033895326,0.15033746232062645,-0.2713077678422794,0.06203931967516307,0.19643084878778933,-0.19559504973216124,-0.06208792287181719,0.03397224501590637,-0.0059939518532270185
0.04,-0.181355602991663,-0.12723425002932376,0.4623277526029375,-0.4854865620502901,-0.22202841181220212,-0.05259039590321607,0.03798217202277154,-0.18462444195331618,-0.22819670254283458,0.12540494822129394,-0.470337107459507,-0.23013619853307643,0.10073184251697273,-0.24899313263962886,-0.017603093622939783,-0.19446754547177297,-0.024125100431717672,-0.29839812796952636,0.24079603417183465,-0.1800707089128773,0.09947531888163141,0.03329277362729978,-0.15158323557194447,-0.10099191272549202,-0.003106800793693798,-0.11674568164161733,0.6291943540713452,-0.10744894652160542,0.020124279496837538,-0.009557587216639865,0.37644361678135085,-0.21376975668112763,0.20635157601727686,-0.1752641060304963,0.7692567469736704,0.11056553213323304,-0.4611019637057998,0.1837017238897739,0.39060735322195445,-0.14685655883554063,0.3397754543810204,0.85274739568989,0.02643901069668725,0.172240703595668,-0.0603490652927709,0.21483587686834485,-0.7242530040330019,-0.7479107388660573,-0.729486009741573,0.2825865735316219,-0.0012108483579087448,0.0027305141930581006,0.25885730945751856,0.08588071757954713,-0.112484607048467,-0.24658632109503414,0.546770104162964,0.1609108157078416,0.6936161729691113,0.48276175488979634,0.17288808166872038,-0.31200393301862134,0.07134521762643763,0.22589547610595773,-0.22493430719198543,-0.07140111130258964,0.039068081768292406,-0.006893044631211084
0.045,-0.20501068164274944,-0.14383002177227894,0.5226313725076686,-0.5488108962307636,-0.25098863943988065,-0.05945001276015732,0.042936368373567735,-0.20870589090374875,-0.2579614898310304,0.14176211538059325,-0.5316854258237907,-0.2601539635591297,0.11387077849744746,-0.28147049776653693,-0.019899149312888414,-0.21983287748983044,-0.02727185266194182,-0.3373196229220736,0.2722042125420739,-0.20355819268412217,0.11245036047488755,0.037635309317817126,-0.1713549619508939,-0.11416477090707783,-0.0035120356798277186,-0.13197337924704566,0.7112631828632597,-0.12146402650268434,0.022749185518164183,-0.010804229027505885,0.4255449581006573,-0.2416527684221444,0.23326699897605202,-0.1981246415996915,0.8695945835354535,0.12498712328104594,-0.5212456981022086,0.20766281831017921,0.441556138424818,-0.16601176216191538,0.38409399190897964,0.9639753168668324,0.02988757730929828,0.19470688232553807,-0.06822068250487145,0.24285794776421574,-0.8187207871677411,-0.8454643135007607,-0.8246363588382998,0.31944569181835525,-0.0013687851002449625,0.0030866682182395244,0.2926213063432819,0.09708255030731411,-0.12715651231565822,-0.27874975428134297,0.6180879438363939,0.18189918297408184,0.7840878477042129,0.5457306794406391,0.19543870101681443,-0.3527000981949632,0.08065111557771207,0.25536010342412613,-0.25427356465180967,-0.0807142997333623,0.04416391852067826,-0.0077921374091951354
0.049999999999999996,-0.22866576029383595,-0.160425793515234,0.5829349924123993,-0.6121352304112352,-0.27994886706755917,-0.06630962961709863,0.04789056472436409,-0.23278733985418124,-0.28772627711922616,0.15811928253989238,-0.5930337441880742,-0.29017172858518303,0.1270097144779222,-0.313947862893445,-0.022195205002837115,-0.2451982095078876,-0.030418604892165968,-0.37624111787462067,0.3036123909123132,-0.2270456764553671,0.1254254020681439,0.04197784500833451,-0.1911266883298431,-0.12733762908866375,-0.003917270565961584,-0.14720107685247402,0.7933320116551743,-0.13547910648376332,0.025374091539490704,-0.012050870838371974,0.47464629941996406,-0.26953578016316093,0.2601824219348272,-0.2209851771688866,0.9699324200972367,0.13940871442885897,-0.5813894324986171,0.2316239127305845,0.49250492362768195,-0.18516696548829026,0.42841252943693875,1.0752032380437742,0.03333614392190984,0.2171730610554076,-0.07609229971697229,0.27088001866008676,-0.9131885703024806,-0.9430178881354638,-0.9197867079350266,0.3563048101050885,-0.001526721842580625,0.0034428222434210454,0.3263853032290452,0.1082843830350812,-0.14182841758284964,-0.31091318746765173,0.6894057835098241,0.20288755024032212,0.8745595224393143,0.6086996039914824,0.2179893203649083,-0.3933962633713052,0.08995701352898651,0.28482473074229453,-0.28361282211163386,-0.09002748816413467,0.04925975527306445,-0.008691230187179192
0.055,-0.25232083894492247,-0.1770215652581894,0.6432386123171305,-0.6754595645917083,-0.30890909469523786,-0.07316924647403966,0.05284476107516034,-0.25686878880461395,-0.3174910644074219,0.17447644969919163,-0.654382062552358,-0.32018949361123705,0.140148650458397,-0.34642522802035325,-0.024491260692785677,-0.2705635415259451,-0.03356535712239006,-0.4151626128271678,0.3350205692825525,-0.2505331602266119,0.13840044366140003,0.046320380698851873,-0.2108984147087925,-0.14051048727024984,-0.004322505452095671,-0.16242877445790238,0.8754008404470892,-0.1494941864648422,0.027998997560817432,-0.013297512649238036,0.5237476407392707,-0.2974187919041776,0.2870978448936024,-0.24384571273808192,1.0702702566590196,0.153830305576672,-0.6415331668950259,0.25558500715098986,0.5434537088305453,-0.2043221688146652,0.472731066964898,1.1864311592207168,0.03678471053452073,0.2396392397852775,-0.08396391692907268,0.298902089555958,-1.0076563534372203,-1.0405714627701674,-1.0149370570317533,0.3931639283918218,-0.0016846585849166207,0.003798976268602483,0.36014930011480834,0.11948621576284812,-0.15650032285004095,-0.34307662065396055,0.760723623183254,0.22387591750656238,0.9650311971744157,0.6716685285423252,0.24053993971300225,-0.4340924285476472,0.09926291148026108,0.314289358060463,-0.31295207957145804,-0.09934067659490742,0.054355592025450455,-0.00959032296516323
0.06,-0.27597591759600876,-0.19361733700114467,0.7035422322218614,-0.7387838987721808,-0.33786932232291633,-0.08002886333098103,0.05779895742595667,-0.280950237755046,-0.3472558516956178,0.19083361685849093,-0.7157303809166414,-0.3502072586372902,0.15328758643887158,-0.3789025931472612,-0.02678731638273449,-0.2959288735440025,-0.03671210935261404,-0.4540841077797151,0.3664287476527917,-0.27402064399785675,0.15137548525465627,0.05066291638936915,-0.23067014108774175,-0.15368334545183548,-0.004727740338229758,-0.17765647206333074,0.9574696692390035,-0.1635092664459213,0.030623903582143924,-0.014544154460104153,0.5728489820585774,-0.3253018036451944,0.3140132678523778,-0.26670624830727696,1.1706080932208023,0.16825189672448504,-0.7016769012914343,0.279546101571395,0.5944024940334092,-0.22347737214104013,0.517049604492857,1.2976590803976582,0.04023327714713232,0.26210541851514707,-0.09183553414117396,0.32692416045182876,-1.102124136571959,-1.1381250374048697,-1.110087406128481,0.4300230466785551,-0.0018425953272526163,0.004155130293784004,0.39391329700057176,0.13068804849061516,-0.17117222811723226,-0.3752400538402693,0.832041462856684,0.24486428477280264,1.0555028719095176,0.7346374530931681,0.2630905590610963,-0.47478859372398885,0.10856880943153546,0.3437539853786312,-0.34229133703128223,-0.10865386502567959,0.0594514287778361,-0.010489415743147285
0.065,-0.2996309962470952,-0.21021310874410007,0.7638458521265925,-0.802108232952654,-0.36682954995059514,-0.08688848018792217,0.062753153776753,-0.305031686705479,-0.3770206389838136,0.20719078401779029,-0.7770786992809253,-0.38022502366334376,0.16642652241934633,-0.41137995827416934,-0.02908337207268312,-0.3212942055620596,-0.039858861582838134,-0.49300560273226157,0.3978369260230312,-0.2975081277691016,0.16435052684791263,0.055005452079886594,-0.25044186746669106,-0.1668562036334218,-0.005132975224363623,-0.1928841696687592,1.0395384980309188,-0.17752434642700016,0.033248809603470625,-0.015790796270970214,0.621950323377884,-0.35318481538621105,0.34092869081115296,-0.28956678387647217,1.2709459297825862,0.1826734878722981,-0.7618206356878436,0.3035071959918005,0.6453512792362724,-0.242632575467415,0.5613681420208165,1.4088870015746011,0.043681843759743766,0.28457159724501724,-0.09970715135327402,0.3549462313477,-1.1965919197066992,-1.2356786120395735,-1.2052377552252074,0.46688216496528834,-0.002000532069588501,0.004511284318965386,0.42767729388633496,0.14188988121838214,-0.18584413338442363,-0.40740348702657825,0.9033593025301141,0.26585265203904274,1.1459745466446187,0.7976063776440111,0.28564117840919034,-0.5154847589003311,0.11787470738280995,0.3732186126967998,-0.3716305944911064,-0.1179670534564522,0.06454726553022234,-0.011388508521131352
0.07,-0.32328607489818195,-0.22680888048705533,0.8241494720313234,-0.8654325671331264,-0.3957897775782736,-0.09374809704486342,0.06770735012754919,-0.32911313565591155,-0.40678542627200953,0.22354795117708925,-0.8384270176452089,-0.4102427886893971,0.17956545839982108,-0.4438573234010776,-0.03137942776263161,-0.34665953758011725,-0.04300561381306223,-0.5319270976848092,0.42924510439327046,-0.3209956115403465,0.17732556844116876,0.05934798777040401,-0.2702135938456403,-0.18002906181500755,-0.005538210110497599,-0.20811186727418743,1.121607326822833,-0.19153942640807925,0.035873715624797214,-0.017037438081836276,0.6710516646971906,-0.38106782712722775,0.3678441137699282,-0.3124273194456674,1.3712837663443693,0.19709507902011109,-0.821964370084252,0.3274682904122057,0.6963000644391361,-0.26178777879378984,0.6056866795487756,1.5201149227515427,0.04713041037235524,0.30703777597488685,-0.10757876856537468,0.38296830224357137,-1.2910597028414381,-1.3332321866742762,-1.3003881043219347,0.5037412832520216,-0.0021584688119244966,0.004867438344146907,0.46144129077209856,0.15309171394614918,-0.200516038651615,-0.439566920212887,0.9746771422035447,0.28684101930528294,1.2364462213797205,0.8605753021948545,0.3081917977572844,-0.5561809240766727,0.12718060533408448,0.40268324001496814,-0.4009698519509307,-0.12728024188722475,0.06964310228260817,-0.012287601299115403
0.07500000000000001,-0.34694115354926847,-0.24340465223001073,0.8844530919360543,-0.9287569013135997,-0.4247500052059521,-0.1006077139018049,0.07266154647834555,-0.3531945846063441,-0.43655021356020535,0.2399051183363885,-0.899775336009492,-0.4402605537154507,0.19270439438029593,-0.47633468852798583,-0.033675483452580285,-0.3720248695981744,-0.04615236604328621,-0.5708485926373559,0.4606532827635097,-0.34448309531159127,0.19030061003442544,0.06369052346092136,-0.2899853202245898,-0.1932019199965933,-0.005943444996631353,-0.22333956487961582,1.2036761556147473,-0.20555450638915806,0.03849862164612394,-0.018284079892702282,0.7201530060164973,-0.4089508388682444,0.39475953672870323,-0.33528785501486247,1.4716216029061517,0.21151667016792403,-0.8821081044806606,0.35142938483261094,0.7472488496419998,-0.28094298212016466,0.6500052170767348,1.631342843928485,0.05057897698496619,0.32950395470475635,-0.11545038577747613,0.4109903731394424,-1.3855274859761781,-1.4307857613089794,-1.3955384534186612,0.5406004015387549,-0.002316405554260381,0.005223592369328428,0.49520528765786165,0.1642935466739162,-0.2151879439188064,-0.4717303533991959,1.0459949818769745,0.30782938657152326,1.3269178961148222,0.9235442267456975,0.3307424171053784,-0.5968770892530151,0.136486503285359,0.4321478673331367,-0.43030910941075495,-0.13659343031799737,0.07473893903499414,-0.013186694077099438
0.08,-0.37059623220035487,-0.2600004239729659,0.9447567118407851,-0.992081235494071,-0.4537102328336302,-0.10746733075874593,0.07761574282914185,-0.37727603355677664,-0.466315000848401,0.25626228549568786,-0.9611236543737758,-0.47027831874150405,0.2058433303607705,-0.5088120536548937,-0.03597153914252907,-0.39739020161623184,-0.0492991182735103,-0.6097700875899028,0.4920614611337489,-0.36797057908283626,0.20327565162768146,0.0680330591514387,-0.30975704660353914,-0.20637477817817929,-0.00634867988276544,-0.23856726248504412,1.285744984406662,-0.21956958637023694,0.04112352766745056,-0.019530721703568482,0.769254347335804,-0.43683385060926094,0.4216749596874787,-0.3581483905840578,1.5719594394679355,0.22593826131573708,-0.9422518388770695,0.3753904792530164,0.7981976348448633,-0.30009818544653954,0.6943237546046941,1.7425707651054272,0.054027543597578,0.3519701334346265,-0.12332200298957663,0.4390124440353129,-1.4799952691109173,-1.5283393359436825,-1.4906888025153893,0.5774595198254884,-0.002474342296596488,0.005579746394509949,0.5289692845436249,0.17549537940168325,-0.22985984918599767,-0.5038937865855045,1.1173128215504047,0.32881775383776335,1.417389570849923,0.9865131512965403,0.353293036453472,-0.637573254429357,0.14579240123663345,0.46161249465130505,-0.459648366870579,-0.1459066187487701,0.07983477578738017,-0.014085786855083488
0.085,-0.3942513108514414,-0.27659619571592126,1.005060331745517,-1.055405569674544,-0.48267046046130946,-0.11432694761568718,0.08256993917993799,-0.4013574825072092,-0.4960797881365967,0.27261945265498677,-1.0224719727380591,-0.5002960837675574,0.21898226634124526,-0.5412894187818016,-0.03826759483247763,-0.422755533634289,-0.05244587050373439,-0.64869158254245,0.5234696395039882,-0.39145806285408097,0.21625069322093793,0.07237559484195595,-0.3295287729824882,-0.21954763635976504,-0.006753914768899194,-0.25379496009047253,1.3678138131985769,-0.2335846663513162,0.04374843368877701,-0.020777363514434377,0.8183556886551107,-0.4647168623502776,0.4485903826462538,-0.38100892615325305,1.6722972760297188,0.24035985246355002,-1.002395573273478,0.3993515736734216,0.8491464200477272,-0.31925338877291454,0.7386422921326532,1.8537986862823699,0.05747611021018906,0.37443631216449613,-0.13119362020167646,0.46703451493118403,-1.5744630522456564,-1.625892910578386,-1.5858391516121149,0.6143186381122216,-0.0026322790389325945,0.005935900419691331,0.5627332814293884,0.18669721212945012,-0.24453175445318898,-0.5360572197718134,1.1886306612238342,0.34980612110400366,1.5078612455850247,1.049482075847383,0.3758436558015661,-0.6782694196056985,0.1550982991879078,0.4910771219694734,-0.4889876243304033,-0.15521980717954298,0.08493061253976639,-0.014984879633067593
0.09000000000000001,-0.41790638950252756,-0.2931919674588765,1.0653639516502476,-1.118729903855017,-0.5116306880889878,-0.12118656447262821,0.08752413553073413,-0.4254389314576414,-0.5258445754247929,0.28897661981428624,-1.0838202911023433,-0.5303138487936108,0.23212120232171995,-0.57376678390871,-0.04056365052242625,-0.44812086565234643,-0.0555926227339586,-0.6876130774949969,0.5548778178742276,-0.41494554662532607,0.22922573481419395,0.0767181305324735,-0.3493004993614375,-0.2327204945413509,-0.007159149655032948,-0.2690226576959009,1.4498826419904913,-0.24759974633239512,0.04637333971010377,-0.022024005325300466,0.8674570299744173,-0.492599874091294,0.47550580560502914,-0.40386946172244825,1.772635112591502,0.25478144361136307,-1.0625393076698868,0.423312668093827,0.9000952052505906,-0.3384085920992894,0.7829608296606123,1.9650266074593123,0.06092467682280067,0.39690249089436597,-0.13906523741377697,0.49505658582705525,-1.6689308353803958,-1.7234464852130897,-1.6809895007088418,0.6511777563989549,-0.002790215781268257,0.006292054444872741,0.5964972783151514,0.19789904485721732,-0.2592036597203804,-0.5682206529581222,1.259948500897265,0.370794488370244,1.5983329203201255,1.1124510003982262,0.39839427514966014,-0.7189655847820404,0.1644041971391823,0.520541749287642,-0.5183268817902275,-0.16453299561031487,0.09002644929215203,-0.015883972411051623
0.095,-0.4415614681536142,-0.3097877392018318,1.125667571554978,-1.1820542380354904,-0.5405909157166662,-0.12804618132956957,0.09247833188153054,-0.44952038040807424,-0.5556093627129886,0.3053337869735855,-1.1451686094666265,-0.5603316138196641,0.2452601383021947,-0.6062441490356183,-0.042859706212375115,-0.47348619767040406,-0.05873937496418258,-0.7265345724475436,0.5862859962444668,-0.43843303039657067,0.24220077640744986,0.08106066622299071,-0.3690722257403867,-0.24589335272293722,-0.007564384541167479,-0.28425035530132925,1.5319514707824062,-0.26161482631347377,0.0489982457314303,-0.023270647136166667,0.9165583712937234,-0.5204828858323108,0.5024212285638041,-0.4267299972916433,1.8729729491532838,0.269203034759176,-1.1226830420662954,0.447273762514232,0.9510439904534539,-0.3575637954256641,0.8272793671885716,2.0762545286362544,0.06437324343541181,0.4193686696242355,-0.14693685462587736,0.5230786567229264,-1.7633986185151351,-1.8210000598477925,-1.7761398498055692,0.6880368746856882,-0.002948152523604586,0.006648208470054318,0.6302612752009149,0.20910087758498414,-0.27387556498757193,-0.600384086144431,1.3312663405706944,0.3917828556364843,1.688804595055228,1.1754199249490693,0.42094489449775385,-0.7596617499583826,0.17371009509045687,0.5500063766058103,-0.5476661392500515,-0.17384618404108787,0.09512228604453804,-0.016783065189035683
0.1,-0.4652165468047007,-0.32638351094478657,1.1859711914597089,-1.2453785722159625,-0.569551143344345,-0.13490579818651072,0.09743252823232695,-0.47360182935850653,-0.5853741500011843,0.3216909541328846,-1.2065169278309105,-0.5903493788457168,0.25839907428266895,-0.6387215141625263,-0.04515576190232368,-0.49885152968846125,-0.06188612719440667,-0.765456067400091,0.6176941746147063,-0.46192051416781565,0.25517581800070643,0.08540320191350817,-0.3888439521193362,-0.259066210904523,-0.007969619427301122,-0.2994780529067575,1.614020299574321,-0.2756299062945532,0.051623151752756974,-0.024517288947032645,0.9656597126130303,-0.5483658975733277,0.5293366515225795,-0.44959053286083833,1.9733107857150682,0.283624625906989,-1.182826776462704,0.4712348569346374,1.0019927756563174,-0.37671899875203907,0.8715979047165306,2.1874824498131953,0.06782181004802285,0.44183484835410497,-0.15480847183797863,0.5511007276187975,-1.8578664016498747,-1.9185536344824954,-1.8712901989022952,0.7248959929724212,-0.0031060892659400263,0.007004362495236005,0.664025272086678,0.22030271031275145,-0.2885474702547631,-0.6325475193307397,1.4025841802441248,0.4127712229027246,1.7792762697903295,1.2383888494999122,0.443495513845848,-0.8003579151347247,0.18301599304173147,0.5794710039239785,-0.5770053967098758,-0.1831593724718602,0.10021812279692441,-0.017682157967019704
